digraph Tree {
node [shape=box] ;
0 [label="X[0] <= 5.45\ngini = 0.5\nsamples = 70\nvalue = [36, 34]"] ;
1 [label="X[1] <= 2.8\ngini = 0.26\nsamples = 39\nvalue = [33, 6]"] ;
0 -> 1 [labeldistance=2.5, labelangle=45, headlabel="True"] ;
2 [label="X[0] <= 4.7\ngini = 0.278\nsamples = 6\nvalue = [1, 5]"] ;
1 -> 2 ;
3 [label="gini = 0.0\nsamples = 1\nvalue = [1, 0]"] ;
2 -> 3 ;
4 [label="gini = 0.0\nsamples = 5\nvalue = [0, 5]"] ;
2 -> 4 ;
5 [label="X[0] <= 5.25\ngini = 0.059\nsamples = 33\nvalue = [32, 1]"] ;
1 -> 5 ;
6 [label="gini = 0.0\nsamples = 28\nvalue = [28, 0]"] ;
5 -> 6 ;
7 [label="X[1] <= 3.2\ngini = 0.32\nsamples = 5\nvalue = [4, 1]"] ;
5 -> 7 ;
8 [label="gini = 0.0\nsamples = 1\nvalue = [0, 1]"] ;
7 -> 8 ;
9 [label="gini = 0.0\nsamples = 4\nvalue = [4, 0]"] ;
7 -> 9 ;
10 [label="X[1] <= 3.7\ngini = 0.175\nsamples = 31\nvalue = [3, 28]"] ;
0 -> 10 [labeldistance=2.5, labelangle=-45, headlabel="False"] ;
11 [label="gini = 0.0\nsamples = 28\nvalue = [0, 28]"] ;
10 -> 11 ;
12 [label="gini = 0.0\nsamples = 3\nvalue = [3, 0]"] ;
10 -> 12 ;
}