digraph Tree {
node [shape=box] ;
0 [label="X[1] <= 3.05\ngini = 0.496\nsamples = 70\nvalue = [38, 32]"] ;
1 [label="X[0] <= 4.95\ngini = 0.291\nsamples = 34\nvalue = [6, 28]"] ;
0 -> 1 [labeldistance=2.5, labelangle=45, headlabel="True"] ;
2 [label="X[1] <= 2.65\ngini = 0.245\nsamples = 7\nvalue = [6, 1]"] ;
1 -> 2 ;
3 [label="gini = 0.0\nsamples = 1\nvalue = [0, 1]"] ;
2 -> 3 ;
4 [label="gini = 0.0\nsamples = 6\nvalue = [6, 0]"] ;
2 -> 4 ;
5 [label="gini = 0.0\nsamples = 27\nvalue = [0, 27]"] ;
1 -> 5 ;
6 [label="X[0] <= 6.1\ngini = 0.198\nsamples = 36\nvalue = [32, 4]"] ;
0 -> 6 [labeldistance=2.5, labelangle=-45, headlabel="False"] ;
7 [label="gini = 0.0\nsamples = 32\nvalue = [32, 0]"] ;
6 -> 7 ;
8 [label="gini = 0.0\nsamples = 4\nvalue = [0, 4]"] ;
6 -> 8 ;
}